{"Kernels":[{"Values":[[-0.29270670017819234,0.0,0.051795369038263039,-0.23931987687913694,-0.24469731340403544],[0.0,-0.24749205598956536,0.0,-0.43681086433902888,-0.073910844546701215],[-0.1097740112383729,0.96794927211848525,0.80281681046021025,0.0,0.039180434327190941],[0.94669013561061122,0.094917946073654086,0.0,-0.62495631986528466,-0.072794046752524585],[0.56715962875967829,-0.29978804211122356,-0.95916543107440944,0.0,0.60322926035301261]],"Size":5},{"Values":[[0.22066907967471941,0.0,-0.4191933471798866,-0.34564735756518661,-0.70286322930029743],[0.67725294021761651,0.0,0.29521705643051166,0.0,0.0],[-0.8588823163224768,-0.25179701170502089,-0.461401395714563,0.75659800868322979,0.9788767932815835],[0.0,-0.89800253179762635,0.44671849321886825,0.0,-0.25073789071791708],[0.0,0.42018700876281923,0.34478149392864738,0.0041619711574921248,-0.84554708741863593]],"Size":5},{"Values":[[-0.8186216735367764,0.017110921916137879,0.91713265465438953,-0.70939065316197958,-0.16100709194364357],[0.0,-0.035298499295161337,-0.3223040454659164,0.84008555293087173,-0.1305912472915795],[0.22719331887885616,-0.32682292737384461,-0.58771693128520475,0.0,0.0],[-0.13972661417896237,0.98163804085070172,0.873774417151592,0.57833821074028413,0.0],[0.0,0.3115023664718039,0.0,0.0,-0.42198672398086018]],"Size":5}],"KernelNumber":3,"KernelSize":5,"Bias":-0.98898599110030849}