{"Kernels":[{"Values":[[0.0,0.8601718954090829,0.81270911442707716,0.37018234160271585,-0.013334835885714198],[0.0,0.0,-0.53682418844514723,0.0,0.5034655968209103],[0.0,0.03360276810526977,0.0,-0.41951363087609111,0.0],[0.0,0.64334386058307436,0.0,0.031339683584561427,0.053958075611832586],[0.5699209173069899,-0.52647520393434688,0.12336060457088081,0.0,0.0]],"Size":5},{"Values":[[0.273027148690553,-0.7595120895465427,-0.95307879706522391,-0.50222973362646517,0.0],[-0.34467504329265797,0.0,0.11636489262635116,-0.88533337967718639,-0.0033702808447975113],[-0.11244723671695554,0.40167877981517408,0.33006137671417624,0.064306003537171516,0.57339642130462287],[-0.51153481728934447,-0.046239465962275614,-0.21082659867164985,0.0,0.0],[0.94357580549250164,0.0,-0.46947449327887708,0.68058883849558827,-0.95786251405154477]],"Size":5},{"Values":[[0.0,0.384435402408445,-0.31924837097490594,-0.56467108873867944,-0.75894232036496623],[0.0,0.59001844822895644,-0.94978449863837311,0.27537677123927362,0.31865448985186151],[-0.27835331777034017,0.0,-0.14744284383367878,0.87935292296081446,-0.21984156697049809],[-0.99493490112709571,0.0,0.82747034860191415,-0.64727254521440369,-0.921674782373791],[0.0,0.0,0.0,0.0,-0.642854261045742]],"Size":5}],"KernelNumber":3,"KernelSize":5,"Bias":0.972927908866167}