{"Kernels":[{"Values":[[0.0,0.76534530323247674,0.0,0.0,0.0],[0.30448002848051492,0.76064807724237815,-0.13410739187808121,-0.27081567154769587,0.9970136629403632],[0.0,0.0,0.16969608756233756,-0.87781799159842455,0.18656529774263747],[0.0,0.0,0.0,-0.49093169229614164,0.048401464265026832],[0.51990140859033052,0.60849969862424758,0.48622655192680031,-0.83852495245566827,0.96268989050886122]],"Size":5},{"Values":[[0.0,0.0,0.25081993325185958,-0.14652172576008446,-0.49990598228755684],[-0.562862612569175,0.34329057174888,0.20766799487530627,-0.92969668513615467,0.0],[-0.61990012164223018,-0.96742805650803632,0.23189750045160645,0.0,0.0],[0.0,-0.19885083623176944,0.11405018582663042,0.0,0.0],[-0.41726710620208973,0.72302108617640148,0.0,0.605530684630168,0.0]],"Size":5},{"Values":[[0.80563456230127928,0.0,0.0,0.47437605097628016,0.0],[0.95766401940847934,-0.061012472985783814,0.44918047424833313,-0.83504053011305657,0.0],[-0.57966178542918612,0.68787700761476389,-0.15305145371381726,-0.32486751690733595,0.050611773063713582],[0.19889859631606313,0.0,-0.62873027782362434,0.87790093425563576,0.0],[0.0,0.4971377120805614,0.0,0.0,-0.285778723324546]],"Size":5}],"KernelNumber":3,"KernelSize":5,"Bias":0.0}