{"Kernels":[{"Values":[[0.0,0.13742416172168412,0.0,-0.71162247551215,0.0],[0.33600204034522269,0.68171208756124235,0.73818051011216845,-0.27744470549628358,0.50842572632638072],[0.595558062007445,0.0,-0.41239549751039384,-0.58132765841732159,0.58787303212465392],[0.0,0.0,-0.51573638781706632,0.0,-0.0013728835626379045],[0.21966928533263005,-0.95708263523740822,-0.95509821174438025,0.64583563974398916,0.0]],"Size":5},{"Values":[[0.0,0.11445503780360103,-0.32837815504911272,0.091493009632217237,0.0],[0.0,0.0,0.2727735691111412,-0.52272595210127815,0.0],[0.615013839497703,0.0,0.693978244296265,0.824170204728921,0.0],[0.0,-0.16910360388881696,0.0,0.41778036552377995,0.0],[0.0,0.0,0.0,0.0,-0.030845474931805152]],"Size":5},{"Values":[[-0.49857020354763149,0.0,-0.74709103337819271,0.0,0.0],[-0.27072358749374914,-0.36710880946699009,-0.080459996629720545,-0.4671324107177241,0.0],[0.38598627149406184,-0.30195977459752921,-0.2583380091275731,0.619772724164544,-0.32259375663594986],[0.0,-0.9632700714111655,-0.89252913831385283,0.19531285539051185,-0.47867712587056549],[0.37840472179390711,0.0,-0.15011900810064702,0.030669866144037744,0.45763362825737969]],"Size":5}],"KernelNumber":3,"KernelSize":5,"Bias":-0.11630086000836494}