{"Kernels":[{"Values":[[0.0,0.0,-0.96374702684755764,-0.77932878340563216,0.28676877323853261],[0.45441392923445156,0.42719724049195518,0.0,0.0,-0.66149678996833827],[-0.65265596874647591,-0.97238949638436989,0.61802044586186322,0.0,0.0],[-0.51929454576191236,0.5361904970073097,0.0,0.0,0.77349617414804928],[-0.6947541915321509,0.69960326873678869,0.22725668979215283,0.0,0.20886136414895828]],"Size":5},{"Values":[[-0.99183668894313126,0.0,0.49647207953802874,-0.55031871728148252,-0.76871922647986524],[-0.32650942230900259,0.85714033798181466,0.0,0.0,0.70155302607526682],[0.98453267942393785,0.69532134881956564,0.0,-0.38535671512845748,0.10115141286568316],[0.0,0.0,-0.58880251068100453,0.78221845989218841,-0.28726126592944434],[-0.05753923256766947,0.0,0.0,0.25875708985084533,0.46234749651623308]],"Size":5},{"Values":[[0.34547908946195577,0.0,-0.78305665440068428,0.0,0.00928116823047454],[0.0,0.097430111885736748,0.78925867508596681,0.0,-0.11732706293339239],[0.0,0.0,0.71984982803456943,-0.87373669998428627,-0.1551161674573627],[0.0,-0.67489535532654044,0.0,0.458629109644624,0.0],[-0.775385306112182,-0.96624394271813518,0.0,-0.14961476770677359,0.0]],"Size":5}],"KernelNumber":3,"KernelSize":5,"Bias":0.64211154619330146}